,Neuron01,Neuron02,Neuron03,Neuron04,Neuron05,Neuron06,Neuron07,Neuron08,Neuron09,Neuron10,Neuron11,Neuron12,Neuron13,Neuron14,Neuron15,Neuron16,Neuron17,Neuron18,Neuron19,Neuron20,Neuron21,Neuron22,Neuron23,Neuron24,Neuron25,Neuron26,Neuron27,Neuron28,Neuron29,Neuron30
407,1.3200294,-2.3852,-8.293623,2.4543545,-0.73541707,0.6446224,1.7759713,-1.2818059,-1.0245538,-6.078668,-3.0132608,-3.5821152,-1.944478,-0.9128748,-12.066136,3.015553,-2.3497002,-5.9195666,-1.9446595,0.42777792,-2.3226364,0.30359042,-2.968157,-1.3653746,-1.3911636,-2.2136724,-2.611076,-1.5159305,-3.4290564,0.24987127
416,-4.298306,-1.7652544,-7.9863744,1.0212628,0.44138232,1.7659663,2.307521,-1.6723261,-1.5179,-7.667432,-0.9021953,-3.9322405,-0.91956466,0.5193637,-13.324343,1.7719473,-2.3454385,-10.36469,-3.781187,-3.4749103,-8.516397,-0.79123485,-2.9288974,-3.5068126,-4.275802,-0.45770866,-3.588361,-1.4265513,-2.749515,-7.366142
424,-7.7493305,1.5982429,-5.6058784,-0.2333147,2.274453,2.4623203,4.141251,2.3538003,-4.354961,-7.4984756,2.707841,-1.2741041,2.4552696,3.1392667,-12.206253,-0.050332054,1.8857198,-12.749765,-5.3685546,-4.9254746,-12.052069,-2.182563,-3.7527142,-3.380453,-5.8713536,1.4246323,-5.730818,-2.3554726,-1.1056118,-14.50354
431,-13.146252,2.1481745,-5.7935057,-2.8853405,-0.6489584,-0.26556164,2.576317,-4.4904733,-1.4607542,-10.081724,1.8886245,-0.65101814,0.53433645,1.5357916,-11.355082,-5.25977,-0.52710474,-13.568719,-5.2081966,-6.696661,-12.685449,-3.7670255,-4.57988,-6.451383,-7.9191713,1.4131936,-3.2773995,-2.2084377,-3.8081415,-14.669689
439,-9.900013,1.0576699,-4.4025598,-1.0901878,0.43858227,0.062091473,3.0288658,-1.5775684,-3.71972,-9.294595,0.6415921,-0.03567273,0.6771993,2.2557352,-9.365561,-2.0704043,0.5206728,-11.415563,-5.9009805,-5.9517713,-12.466472,-3.6243718,-4.8623843,-4.424445,-7.471494,0.5033762,-4.907035,-2.013402,-2.1000192,-10.457086
446,-13.487678,0.36962086,-6.197703,-4.439927,-3.626077,-1.7584953,0.26984453,-10.582884,-1.5451242,-12.852104,-4.5093637,-0.8204147,-2.9186006,-1.7584814,-8.6965685,-5.2161593,-4.044762,-11.802895,-5.3746815,-8.636464,-13.76957,-4.929548,-5.4475875,-6.756566,-8.838865,0.20661992,-1.9580309,-1.6905891,-4.78385,-9.064688
453,-14.590718,1.0534759,-5.658355,-4.5512185,-4.665928,-2.1343737,-0.11501128,-11.068702,-1.2095095,-14.082053,-5.251103,-0.2987454,-3.0538092,-2.8620327,-7.6917415,-6.629298,-4.021394,-11.495257,-5.441362,-9.154488,-14.763187,-4.9489083,-5.8286343,-7.6058536,-9.3145485,-0.019493435,-1.0583789,-1.5469494,-4.608547,-9.037853
461,-15.196118,1.5700382,-4.9129477,-4.909194,-5.004552,-2.7258008,-0.107078925,-12.2588625,-0.7995418,-14.698723,-9.171162,0.8570982,-2.9984453,-3.4588363,-6.4286447,-8.119115,-3.5984008,-10.624881,-6.199892,-8.076784,-13.687387,-4.6204047,-7.8686485,-7.132929,-9.7115555,0.07297022,0.34394476,-2.6109068,-4.7718596,-7.091838
468,-14.690424,2.1973484,-2.6896613,-4.2069306,-3.0888839,-2.7082489,-0.442453,-11.539141,0.22777088,-13.885875,-7.01276,1.4689436,-3.2875326,-2.3643346,-4.0020194,-6.8611307,-3.166003,-8.696708,-7.0871162,-4.7616243,-11.929274,-5.4693627,-7.108318,-6.674885,-8.714878,-0.6408649,0.7468275,-2.1133232,-3.910167,-3.7025993
475,-13.792315,1.141672,-1.6656815,-3.5850894,-3.2877934,-2.1116478,-0.67612755,-9.559697,-0.9045273,-13.533424,-5.398711,0.9987443,-3.9752414,-2.3025703,-3.3780656,-4.914711,-3.607814,-7.1703467,-6.46223,-6.5468082,-12.514551,-4.6170197,-6.5955777,-7.2585516,-8.078242,-1.039583,-0.98755944,-1.3020904,-2.4637182,-3.4576335
483,-15.219216,0.05627199,-3.918706,-5.496996,-4.872557,-3.2895439,-0.83516365,-13.8231945,-0.23285928,-14.943913,-11.2777815,0.047027834,-5.520599,-4.0710654,-5.1378794,-8.109475,-5.2384186,-9.771832,-7.4464664,-7.74516,-14.4560585,-5.333902,-8.009995,-7.9359117,-9.062734,-0.77147925,-0.04967108,-2.690834,-4.4247437,-6.30913
490,-13.122545,-1.4427052,-0.5021345,-2.7968645,-2.6750643,-1.7802628,-0.13779067,-9.584401,-1.5368326,-13.251073,-4.974502,0.59686327,-6.467273,-1.6600157,-2.3775554,-1.3473475,-5.4587646,-6.2068076,-7.6697526,-6.2038765,-13.418236,-3.9733853,-6.983478,-7.3822575,-7.9178753,-1.1143651,-2.8311646,-0.96900505,-1.048965,-3.043287
497,-14.301284,0.2895195,-2.0792525,-4.4755235,-4.3796782,-2.3996744,-1.1681254,-13.279809,0.2075989,-14.2865305,-10.557525,1.1395441,-5.920665,-3.6165245,-3.5849261,-7.4098077,-5.4044003,-8.1297655,-7.3929157,-7.407311,-13.740362,-4.8209543,-7.7337074,-7.3503127,-7.735321,-1.0137854,-0.19171172,-1.7342217,-2.5066993,-4.311191
505,-12.571178,-1.47757,-0.9007777,-2.8512235,-3.4150186,-1.2319459,-1.5399083,-10.532428,-1.1526483,-13.320466,-7.4749146,0.506697,-5.7622023,-2.9118145,-2.6209145,-4.595874,-4.514684,-6.854599,-8.248728,-7.141251,-13.820333,-3.973563,-7.0653105,-7.9297724,-7.0733886,-1.0816131,-1.7360835,-0.7526702,-0.633839,-5.4290624
512,-14.02482,-0.47946566,-2.5461822,-4.5097146,-5.0464997,-2.974453,-2.1813247,-13.375476,0.6505565,-14.501593,-11.300542,-0.2850891,-5.5369897,-4.051746,-4.3203077,-7.6186147,-5.098682,-9.05635,-8.6139,-8.297129,-14.534906,-5.1827126,-8.066398,-6.2376227,-7.560709,-0.5195399,0.79159623,-1.9938263,-2.9715984,-5.7009144
520,-11.3616295,-1.3873656,-1.6341655,-2.6424422,-3.309438,-3.4441032,-2.847424,-9.641774,-0.8132443,-13.980016,-7.9332485,-2.183252,-6.1353254,-2.6910007,-4.3847284,-3.918821,-7.3455625,-9.212449,-8.235114,-7.306048,-14.545242,-4.823381,-6.7534833,-6.6155963,-5.7339106,-0.97988695,-0.19841473,-0.40817946,-0.6241149,-6.342879
527,-8.862573,-0.97525936,-2.20595,-2.0412095,-4.1133766,-4.512209,-2.2856774,-8.100437,-0.600837,-13.947373,-9.121445,-3.7251792,-6.7586145,-3.4357932,-3.557038,-2.89047,-8.962831,-9.223352,-9.089082,-8.208605,-14.665144,-4.733534,-7.2112174,-5.312529,-6.2947297,-0.76198715,0.26305804,-1.237978,-1.0539503,-5.2213817
535,-5.1333055,-1.9431729,-1.6956409,-0.5138676,-4.9868436,-3.804513,-1.7892103,-4.095925,-1.822156,-13.252418,-7.731048,-4.292832,-7.553771,-4.031452,-2.180501,0.024018494,-10.243181,-7.184107,-9.392781,-8.731229,-14.383741,-3.7262125,-7.0055366,-4.9322023,-6.450462,-0.7318469,-0.83473366,-1.1450869,-0.283992,-4.275189
543,-4.313112,-4.7026324,-0.95765,0.06752987,-5.36766,-3.1723132,-2.0603685,-3.7744987,-1.6068285,-12.273284,-5.921377,-5.813609,-9.135642,-4.795015,-1.373185,2.08778,-11.372392,-4.3709955,-7.801488,-8.507138,-14.139769,-3.6899014,-5.8169985,-6.568543,-6.2124014,-1.4893814,-1.1671503,-0.6193346,0.73361707,-2.4713473
551,-2.8339078,-4.4089146,-0.43972862,0.37986287,-7.357351,-2.4871564,-1.7639302,-3.5112565,-1.0372993,-10.923187,-6.798751,-4.619161,-8.902285,-6.7560096,-0.3524918,3.2734547,-11.580043,-2.8413522,-7.8236513,-8.773087,-13.210711,-2.5917282,-4.955385,-7.076797,-6.214563,-1.0424459,-0.9701639,-0.7393407,0.77124065,-0.24535586
559,-2.8559492,-3.9608793,-0.31120816,0.09601025,-6.8351617,-2.4392068,-1.7084461,-3.3690197,-0.9577053,-10.405109,-6.888946,-4.326158,-8.689588,-6.667665,0.22174037,2.621505,-11.491873,-2.2332995,-8.91754,-9.347003,-13.259919,-2.4730392,-5.135508,-7.142617,-6.3995113,-1.1292543,-0.95584905,-1.3658742,0.5390694,-0.5138039
567,-2.3299112,-4.3718233,-0.05227358,0.20942217,-6.578368,-1.9749411,-2.0682693,-3.3503742,-0.75033176,-9.9053135,-7.601184,-3.581674,-8.636715,-5.9344363,0.97266614,2.566447,-11.08548,-1.8474512,-9.126807,-9.528441,-13.003148,-2.2852495,-5.1862125,-6.8702145,-6.1615205,-0.97462255,-0.81333876,-1.5153594,0.44781527,0.2585758
575,-2.146471,-5.2971096,0.056393757,-0.43518862,-7.471444,-1.5869576,-2.2909117,-5.6048336,-0.009186504,-9.727031,-9.468693,-2.9604769,-8.999477,-7.1206326,1.0181131,2.3105154,-11.082593,-0.9298685,-7.98506,-9.356541,-12.941241,-2.077249,-4.4171743,-7.1936364,-6.4579725,-1.1086028,-0.16430661,-1.7946793,0.19744565,1.4918311
584,-2.3678336,-5.8530326,0.27718693,-1.0284344,-7.390964,-1.12666,-2.674908,-6.926061,0.22466798,-8.9410515,-10.107497,-2.8236446,-8.964472,-7.162557,1.1051257,2.122862,-10.758388,-0.08884947,-7.071223,-9.177325,-12.49341,-1.9367231,-3.6561396,-7.9335485,-5.9109116,-1.711316,-0.21258332,-1.4717308,0.018754937,1.7672306
592,-2.2840903,-5.612401,0.12550914,-1.2807695,-6.528664,-0.5715059,-2.4228773,-7.1366735,-0.4861988,-7.7907515,-9.963899,-1.6708618,-7.6320233,-6.375863,0.7127608,0.9715357,-9.893895,-1.4206952,-8.746085,-9.637996,-12.769303,-1.3338041,-3.385381,-7.56836,-5.6815057,-1.2452759,-0.16722938,-1.3482071,-0.008674442,0.41636938
601,-1.7034221,-5.822194,-0.084490664,-1.4129673,-6.5231524,-0.15576251,-2.5427797,-6.6969175,-0.3119413,-7.8665023,-10.191156,-1.5578406,-7.6862235,-6.092604,0.6245423,0.6770724,-9.796021,-0.9284607,-9.605445,-9.848612,-12.787595,-1.2786136,-3.4937232,-6.6141453,-5.7348604,-1.5520257,-0.039926384,-1.3269817,0.047057755,0.6447309
610,-0.89577734,-6.5323772,0.22928599,-1.4171898,-6.370014,-0.11494662,-2.6862283,-6.915614,-0.54127306,-8.15578,-9.963328,-1.7674197,-8.425721,-6.202586,0.5449624,1.0150924,-10.146046,-0.23666197,-9.333407,-9.755079,-12.947527,-1.1727492,-3.6342766,-6.7873273,-5.2891603,-1.8793434,-0.3568252,-0.69760776,0.3377919,1.0921994
619,-0.7725792,-6.993848,0.58574045,-1.6587186,-6.3871546,0.019252267,-2.853406,-7.038052,-0.85834444,-7.093062,-9.59733,-1.320755,-8.074234,-5.8628225,0.45431295,0.38415986,-9.8061905,0.08150304,-9.547476,-9.828893,-12.65544,-0.9369598,-3.4203398,-7.65773,-5.0648413,-2.047085,-0.669958,-0.5966876,0.2760262,0.94866776
628,-1.3241066,-7.6179824,0.48515677,-2.226267,-6.550359,0.019897314,-3.1919262,-7.7579246,-1.1301072,-6.2653,-10.051873,-0.9163934,-8.243408,-6.2814503,0.63034195,-0.59735644,-9.967269,0.22535312,-9.605002,-9.777597,-12.479122,-0.8117979,-3.3940234,-7.549439,-5.629438,-1.8999906,-0.8557526,-0.84232074,-0.21744083,0.58142585
637,-1.4601103,-8.243364,0.43808073,-2.5202322,-6.5385203,-0.09345398,-2.9941654,-8.483395,-0.71077174,-5.693965,-10.7355,-0.9577283,-8.693896,-6.3845377,0.48991987,-0.9215921,-10.356589,1.1739476,-9.3075075,-9.833333,-11.919055,-0.8774219,-3.4328063,-7.9104614,-5.8077245,-2.0941708,-0.78735805,-1.0234702,-0.28604957,0.9050827
646,-1.2662297,-8.922852,0.767431,-2.8739798,-6.473458,0.2848436,-3.249041,-8.754902,-1.0323415,-5.3124156,-10.352351,-0.838445,-8.382586,-6.0609922,0.5116616,-1.4752394,-10.102451,1.2201898,-9.413353,-9.818606,-11.87413,-0.70629317,-2.6911314,-8.135064,-5.3521147,-2.1782126,-0.92935234,-0.66086674,-0.16358013,0.9585575
655,-1.3315417,-9.3283205,1.0065019,-2.9107172,-5.5914774,0.7512908,-3.3972125,-8.839333,-1.1830542,-4.6384077,-9.7843275,-0.21571091,-7.7534876,-5.3592877,0.64136964,-2.1904342,-9.324164,1.0847182,-9.364276,-9.702127,-11.266838,-0.3168284,-1.689208,-8.60819,-4.8569813,-2.2405698,-1.5946423,-0.1745035,0.03767488,0.28712222
665,-0.9614375,-9.074724,1.5624914,-2.9574199,-5.411961,0.95524293,-3.9801836,-7.858085,-1.3463373,-3.777451,-9.246165,0.6930191,-7.109682,-5.2388577,1.1101851,-2.2712817,-8.661381,1.5878888,-9.082827,-9.498145,-10.568987,-0.043966703,-1.9908239,-8.067845,-4.8840437,-2.6104941,-1.5963516,0.07419424,0.12884308,1.1369123
674,-0.94188225,-9.216035,1.8512795,-3.2590296,-5.610905,1.4070928,-3.9345946,-8.190695,-1.2650812,-4.602997,-9.377055,1.0518074,-6.858473,-5.249598,1.2464495,-2.567009,-8.182558,1.3477588,-9.209159,-9.442296,-10.871731,-0.09823899,-2.7063618,-8.005292,-7.2449284,-2.7106194,-1.7924116,-0.37015808,0.012462949,1.2618707
684,-0.94385415,-9.779511,1.9735583,-3.7557552,-5.8901806,0.985323,-4.170954,-8.810307,-0.8431624,-5.15982,-9.547103,0.21754675,-7.371958,-5.416659,1.1203569,-2.2212963,-8.831148,1.1784775,-9.196229,-9.546422,-11.487984,-0.08599152,-2.3788533,-8.284202,-4.9428787,-2.7833817,-2.0162835,0.56647164,0.35012674,1.2857066
694,0.62993854,-8.515445,0.1453316,-2.4595842,-5.7171345,0.5950203,-2.6126652,-6.10258,-0.9100485,-5.236167,-9.389501,-1.5012301,-7.3207626,-5.892582,-1.0923991,0.04486488,-8.306445,0.34846506,-8.2069645,-9.296572,-10.831717,0.5033823,-2.1494772,-4.9073253,-4.798475,-1.9104542,-1.4501126,-0.66345954,-0.17248306,-0.2875689
704,0.8208439,-4.9173265,-0.21163431,-1.1402497,-5.6557593,0.708244,-1.3141456,-2.2096024,0.39711663,-2.5883212,-7.162622,-2.2231057,-6.070954,-5.430003,-0.6824639,2.6855729,-7.399547,1.3550434,-7.906038,-8.650908,-6.721861,0.589315,-2.3423045,-2.8349483,-5.108569,-1.2391007,-0.08934256,-1.4756501,-0.11012956,0.6305914
714,1.0659235,-2.538647,0.64435995,-0.16488312,-5.003867,0.36478293,-0.70600796,0.34734967,1.0578548,-1.1306138,-4.1232996,-2.2830665,-4.416132,-4.893647,-0.17783555,3.2333071,-5.3936744,1.2817856,-6.540912,-7.4570494,-3.836793,0.49525905,-1.0639976,-1.6007098,-3.7665925,-0.9659542,0.25111762,-0.2824974,0.7672982,1.0093474
724,2.115349,-1.111562,0.18990923,0.5531356,-4.7804146,0.9820706,0.75800806,2.4655428,-0.25781488,-1.0142123,-1.8885527,-1.3547174,-1.4639152,-4.9701943,-0.6210421,3.4068847,-1.9426728,-0.08437667,-5.17194,-4.5318007,-2.417257,1.0002537,-0.09303955,1.0654339,-1.2011765,0.17359285,-0.13406995,0.75617987,1.3041022,-0.22876248
734,1.6293346,1.0446528,0.28061053,0.6479116,-6.4670115,-0.043114897,0.8921379,1.3621789,2.6159468,0.7142417,-1.6151997,-1.0149064,-0.88373095,-6.061205,0.017508307,2.5624416,-1.4515345,0.4799811,-3.5959358,-0.3766439,0.7988538,0.39591992,-2.1118484,0.8045871,-0.14181466,0.1821922,1.5325786,-0.25545153,0.23462993,1.256359
744,1.2328953,1.3757198,0.28134575,0.80769074,-7.707378,-1.1789668,0.65376973,0.9932885,2.1865063,1.1531813,-0.1732095,-0.75121033,-0.80363816,-6.932042,0.8781979,1.2284098,-1.6793361,0.83306396,-1.7238425,1.9270741,1.1699883,-0.3342447,-3.6422617,0.33700487,2.7538567,0.12887187,1.1340367,0.14852281,0.34886694,1.0991714
754,0.7391472,1.1467456,0.07026653,1.1237016,-8.297077,-1.1471348,0.7772787,1.4070257,0.17065658,0.5493711,1.1021867,-0.43559995,-0.28178313,-7.3290496,0.5383131,0.589102,-1.3604094,-0.08819752,-0.10506996,2.9436185,0.3486556,-0.25559783,-4.051036,1.0381318,5.433139,0.7392566,0.46428704,0.17139956,0.7594835,-0.34321362
765,0.0014798817,0.82771194,-1.0122094,0.5277881,-8.326338,-1.4485795,0.9985068,0.36593834,-0.5698119,-1.2067553,0.44336382,-0.95895684,-0.042967226,-7.4646144,-1.425159,-0.7578597,-1.023061,-1.580444,0.3298908,2.9529312,-0.78544533,-0.84814286,-4.011991,0.7353448,5.8278046,0.8223056,-0.12995031,-0.12863041,0.09888167,-2.0752163
775,0.07692089,1.6073948,0.6965298,0.538408,-8.870222,-1.0421393,0.5633244,0.15357634,2.0155585,1.9689137,0.39328822,0.14499445,-0.8042673,-7.907119,1.2463995,0.41788822,-1.7949905,1.2913569,0.53309727,2.030001,1.8357944,-0.2875696,-3.2861743,-0.5131168,4.837307,0.102487594,1.1344682,0.1728224,0.19310698,1.8792436
786,-0.2990364,0.7666171,0.107269034,0.18272163,-8.859015,-1.151304,0.6557999,-0.053781103,0.47238377,0.23640686,0.047727257,-0.5799441,-0.60429025,-7.7540407,0.052163504,-0.44864336,-1.294131,-0.18401971,-0.63647205,2.3730435,-0.043680895,-1.0248251,-3.8522813,-0.33759144,5.153784,0.35271943,0.16674155,0.2467777,0.13753766,-0.34538302
796,-0.654257,0.3768151,-0.036188327,0.2059495,-8.967325,-0.9176538,0.69329727,-0.083146565,0.5484412,0.6250245,0.2439185,-0.21999271,-0.72475004,-7.8952117,0.2868923,-0.23295844,-1.6411349,0.40827543,0.026579391,1.8776871,0.1419913,-0.7147262,-3.1412067,-0.4011992,5.7654605,0.14378482,0.2715948,0.511172,0.15534239,0.01315763
807,-0.20803222,0.23262705,0.054470573,0.5065827,-8.623057,-1.1706294,0.81194085,0.2022506,-0.05427869,0.30636162,0.6166468,-0.16897531,-0.37366745,-8.1044445,0.19062476,-0.37563458,-0.85831916,0.22109644,0.06667466,1.6915674,-0.13144815,-0.4771187,-2.4488785,-0.18116622,6.208284,0.5813367,-0.03458002,0.7056403,0.5131739,-0.50653845
817,-0.6798542,-0.07166833,-0.08648869,0.082385555,-8.353364,-0.9325364,0.8568993,-0.33317405,-0.6166741,-0.38408184,-0.029116863,-0.40069747,-0.09721813,-7.8857207,-0.32108673,-0.98754144,-0.15229075,-0.84427524,-1.1821986,0.27817866,-0.9203994,-0.6781417,-1.1226466,-0.13253035,5.4557695,0.6557206,-0.5982524,1.029456,0.4037714,-1.5011306
828,-0.40631518,0.3705697,-0.10608176,0.006876427,-8.366104,-0.3536582,1.080033,-0.23705593,0.44158888,0.2333988,-0.19025019,-0.08637125,-0.0046038106,-8.049925,-0.25981072,-0.73322284,-0.037835144,-0.3214866,-1.0105748,0.38865623,0.04754194,-0.4255466,-0.752227,-0.20153621,5.1307817,0.37402597,0.15290937,0.8056715,-0.14255092,-0.5366975
839,0.1057258,0.7022025,-0.3048357,0.15907724,-8.842699,-0.18004248,0.90706116,-0.16095321,0.90626186,0.90517527,0.34617358,-0.111858875,-0.082051165,-8.321863,-0.16664429,-0.41628265,-0.62343764,-0.011344965,0.35493696,1.3881726,0.63559604,-0.27821139,-1.5016196,-0.35239995,6.237367,0.16763227,0.5751919,0.86613554,-0.14933352,0.38400632
849,0.051128693,0.52764827,-0.014951943,0.13804486,-8.881787,-0.2708719,0.99280196,0.11434437,0.5334823,0.5598876,0.26304463,-0.12242853,-0.04053733,-8.250968,0.111447655,-0.38325113,-1.1512395,0.35621387,0.45409334,1.8696312,0.43782738,-0.24035455,-2.3199167,-0.57214457,6.599513,0.21633068,0.4912013,1.042169,0.007397136,0.21023807
860,-0.017984442,0.49013078,0.15165745,0.30734324,-8.810234,-0.25734732,1.1436282,0.2357698,0.49515516,0.80181366,0.45765135,0.23080002,-0.24734561,-7.8521194,0.50591224,-0.16624084,-0.922362,0.66167575,0.5806842,2.0235093,0.47982326,-0.17514937,-2.3564916,-0.47883102,6.665252,0.33899322,0.17886008,0.98954856,0.6163413,0.26947403
871,0.19303603,0.7844344,0.072476186,0.49565345,-8.658022,0.033029255,1.1219808,0.71176225,0.39421406,1.0431734,0.6707598,0.20700192,-0.065814584,-7.768711,0.53675914,0.08859673,-0.89018583,0.69438285,0.6598885,2.1444428,0.53337866,0.1419124,-2.3783886,-0.3730676,6.760383,0.45611748,0.16183613,0.9414485,0.57492524,0.67945236
881,0.4009236,0.40512434,0.30261493,0.61670065,-8.840807,0.18069279,1.2059076,0.7702157,0.2788252,1.2343904,0.98313725,0.5621479,0.086703405,-7.763558,0.5261902,0.093701705,-0.675542,1.0041636,0.8051308,2.2472613,0.5997332,0.3067602,-2.346374,-0.07273727,7.3015227,0.44307935,0.0742256,1.2532827,0.7205849,0.31362882
892,0.13672507,0.04287769,0.67557734,0.471565,-8.407872,0.39519337,1.0592593,0.83569103,-0.45969966,0.8735343,1.1502981,0.5096414,0.3192575,-7.66032,0.5908216,0.07239241,0.03439419,0.9903277,0.5935779,1.6930473,0.16156803,0.41295004,-1.2843503,0.10152321,7.2964687,0.59019315,-0.3111257,1.7961683,0.87495077,-0.15874529
903,-0.08125247,-0.55360544,0.50595266,0.31913012,-7.7098517,0.6571778,1.1305196,0.51884425,-0.8137296,0.01574025,0.6331351,0.4388485,0.54761374,-7.2872524,-0.015641317,-0.3899105,0.6721036,0.16811088,-0.9786468,-0.3207911,-0.5230383,0.24713695,0.62562263,0.44902584,6.56011,0.64697677,-0.7106733,2.118218,0.92814547,-0.724851
913,-0.14374645,-0.53292763,0.6682116,0.054825485,-7.4223466,0.8543139,1.1624174,-0.112232365,-0.025596252,0.78679764,0.15666457,0.5102882,0.5118262,-7.5254264,0.4239735,-0.09061768,0.69386256,0.55463755,-1.1309619,-1.5827401,0.19340418,0.52945083,1.7468338,-0.1434237,5.945145,0.32243997,0.109993316,2.2061331,0.6164148,0.11625891
924,1.0595909,-0.38759795,0.6168747,0.8796611,-6.307337,1.1150993,1.067184,1.5313154,-1.495907,0.2747881,1.5108032,0.6906327,0.9875661,-6.575771,0.15388551,0.29092613,1.4765067,0.87131125,-0.6018996,-1.1632943,0.21927391,1.0707539,2.6110973,1.4273108,6.7560344,0.94803154,-0.73433584,2.780789,1.2398058,-0.22291648
934,0.8232783,-1.9647981,1.1945224,0.91206515,-4.102908,1.3959358,0.5044428,2.001239,-3.443521,-0.9450344,2.2992084,0.9070209,1.7499563,-5.0689507,-0.22479984,0.092958964,2.6562216,-0.6409643,-1.417565,-5.1042824,-2.189089,1.1426823,4.673517,1.4129508,6.4082875,1.0359058,-2.6857588,3.7143009,2.2832088,-2.3562648
945,0.18961681,-0.8674188,0.18158107,-0.58939385,-4.9740386,1.7428976,0.58707225,-0.760071,-0.094365105,-0.35908484,-1.2338042,1.0156329,2.0460944,-6.678749,-0.26498434,-0.35842398,3.1183453,-0.97166336,-2.6076598,-6.6172867,0.74713296,0.98370415,4.4457064,-0.019306863,1.575314,-0.061638676,0.12827921,2.7668319,-0.00048784463,-0.37337807
956,-0.025279641,-0.31141692,-0.1972801,-1.1039373,-5.618205,2.1782155,0.8971274,-2.2402017,2.5486312,-0.5904003,-3.292073,0.48029816,2.007995,-7.448011,-0.92993224,-0.16620916,2.8003938,-1.4312366,-3.0527432,-6.5133424,1.4716296,0.9335741,4.71814,-0.6938929,0.14169051,-0.23696786,1.320591,2.0552573,-0.6568017,0.6432869
967,0.065716304,0.086561754,0.042452693,-0.7931305,-7.693685,2.3766556,1.0499268,-1.8493489,3.304281,0.64090043,-2.4453332,0.51136905,0.9127091,-8.243144,-0.0354712,0.3951747,1.1019061,-0.20060322,-2.0839543,-4.778842,1.6791242,1.1580596,3.9846096,-1.5260259,2.0726087,-0.2617701,1.3252199,1.5323005,-0.36455685,1.5372143
977,-0.10125846,0.0014377246,0.4021759,-0.50297177,-8.507916,2.064134,1.3323798,-0.76989514,2.4289944,0.4185311,-1.488897,0.5384937,0.50380933,-8.650759,0.2793581,0.80927277,0.39528355,0.4726176,-1.1236433,-2.0907886,0.77188015,1.191923,1.9709905,-1.428551,4.687405,0.048831627,0.87649554,1.7732717,-0.054641124,1.4024223
979,-0.23899783,-0.98772967,0.059887037,-0.593553,-6.62222,2.2935793,0.8618574,-0.4402886,0.45199898,-1.4232788,-1.3753737,0.40629363,0.40161544,-6.89433,-0.26348403,0.2757346,0.7346753,-0.79654646,-1.9753532,-2.992838,-0.9498349,1.0119821,2.0726948,-0.34020963,4.3109245,0.4024986,-0.094477594,2.4828138,1.0386497,-0.7102486
989,-0.6342739,-0.7336143,-0.4919205,-0.97145426,-6.8409104,1.7374772,1.2057568,-0.7445395,0.47948384,-1.8787323,-2.1663034,-0.07904497,0.44996193,-7.048338,-0.77107656,-0.14341979,0.6236359,-1.1508672,-2.4079041,-0.95058346,-1.3447194,0.7011898,0.29580572,-0.8205275,4.277515,0.3226286,-0.026135668,1.7546303,0.32317045,-0.48517492
999,-0.27067798,-0.4759653,-0.08809592,-0.68823475,-6.8112407,1.7360892,1.143619,-0.34855908,0.47098073,-1.4282699,-1.4332196,0.15641981,0.33183062,-6.9620795,-0.4415923,-0.060876794,0.2922556,-0.4595106,-1.8467231,0.2924638,-0.6653055,0.7142582,-0.27221343,-0.65501297,5.0051594,0.29735687,-0.15436846,1.8890157,0.44387415,-0.16652575
bias,-1.1975192,-0.89981425,-0.7785747,-0.7463014,-0.96423554,0.045621596,-0.1708969,-1.95531,-0.071867965,-0.79028463,-0.59914213,-0.23613228,-2.47364,-1.0656389,-1.1929282,-0.18332015,-1.1708142,-1.4728633,-0.89956284,-1.2517447,-0.46713203,-0.65716404,-0.8804054,-1.0096183,0.1700083,-0.42189184,-0.45571756,-1.0088075,-0.48102328,-0.95895773
