,Neuron01,Neuron02,Neuron03,Neuron04,Neuron05,Neuron06,Neuron07,Neuron08,Neuron09,Neuron10,Neuron11,Neuron12,Neuron13,Neuron14,Neuron15,Neuron16,Neuron17,Neuron18,Neuron19,Neuron20,Neuron21,Neuron22,Neuron23,Neuron24,Neuron25,Neuron26,Neuron27,Neuron28,Neuron29,Neuron30,Neuron31,Neuron32,Neuron33,Neuron34,Neuron35,Neuron36,Neuron37,Neuron38,Neuron39,Neuron40
407,0.10684263,4.839804,-3.5859962,-0.08745958,6.2895026,-0.897727,2.0389104,4.9512916,-0.10807823,-5.343181,-6.333625,-5.6028194,-0.4963122,-6.2263947,-0.7756548,-0.69270456,-5.921677,-0.26629177,-1.8567787,-4.788349,-0.9696669,-5.038549,2.9896028,0.7062114,-1.2601649,-7.4523125,-1.7554094,-2.6081772,-1.4584615,-3.7129493,-0.22418705,-10.85137,-0.6801172,-0.82059187,-0.5566863,-3.8427725,-6.8206143,1.4625105,-3.2399678,0.7520324
416,-1.9560763,2.684068,-6.2892294,-4.752583,3.639551,-2.907754,-0.59530646,4.327996,-1.2307419,-5.424963,-9.83231,-9.462846,0.73264724,-5.6565104,-1.0629944,-7.0100226,-4.5399504,-2.461064,-3.0737205,-9.74773,-1.9821484,-4.8503466,3.3947337,-2.7340016,-0.9381288,-3.0425837,-7.1855135,-3.039579,-2.068993,-4.229314,-3.3915434,-7.827652,-4.5618973,1.5087682,-2.5715246,-2.9552016,-5.516581,-0.1577127,-6.6971827,-1.9932892
424,-6.667876,-0.23929079,-7.7098465,-8.279457,0.25197175,-3.3985057,-3.1457775,2.64053,-1.424011,-4.218808,-10.036162,-12.099696,3.6546545,-6.9343896,0.61402863,-12.71486,-3.5070858,-2.3634655,-5.5945177,-12.349799,-0.16515397,-1.7616279,3.6745775,-5.1584325,1.8590544,2.6080775,-11.647019,-3.0841467,-0.4516954,-5.623291,-7.0668597,-4.4774127,-4.58623,3.1027758,-3.109221,-3.3607817,-3.0159147,-1.754242,-8.586612,-4.851229
431,-2.9010653,-5.35528,-6.8622255,-10.494754,-4.1872044,-6.1716905,-9.228316,1.6551768,-3.9307659,-0.7680523,-10.261242,-12.230178,0.47186393,-5.4215026,-1.2800721,-13.556853,-4.3227797,-5.249614,-6.6364293,-8.304255,-1.1609432,-2.1594462,2.4747407,-8.041215,-1.283941,0.28249553,-12.701199,-4.4334435,-2.9618683,-5.802212,-7.643757,-1.7521992,-5.4231863,0.95953727,-5.292967,-3.8431737,-5.453824,-6.5384026,-9.407616,-6.4403954
439,-5.3581915,-2.36436,-5.2192984,-8.495391,-1.5854758,-6.143295,-7.3502746,1.4628639,-2.437438,-2.67525,-5.7423673,-9.794548,0.027424758,-7.6062117,-0.25420126,-10.944568,-4.5046597,-3.9790685,-6.3880863,-6.6482606,-0.8169895,-1.6650465,2.3490055,-7.033177,-0.062254548,-0.7705331,-6.2330494,-3.2302673,-1.4055274,-6.3871956,-7.598938,-3.8687825,-1.3669187,1.1822138,-1.3898222,-4.4319477,-4.8136015,-5.4928126,-8.474334,-4.658871
446,-1.3840121,-4.965588,-5.7741127,-9.832827,-3.4567611,-9.348037,-10.370421,1.4028984,-5.3670363,-1.1972721,-6.6279674,-9.158024,-3.2226274,-6.8326836,-3.525133,-11.508296,-4.588443,-7.260773,-6.0357323,-3.487541,-3.9413342,-4.4011393,0.9532663,-9.175877,-3.3055224,-4.4024167,-5.917175,-4.459663,-5.069838,-5.6929502,-7.7877946,-3.283302,-3.071315,-1.4588633,-3.518877,-4.1634555,-6.466594,-8.446038,-9.827127,-5.2552147
453,-0.6235394,-6.2357855,-5.5564103,-10.135612,-4.1241045,-9.439326,-10.6332445,0.8459775,-6.102434,-0.6370216,-6.7344666,-8.986956,-3.3157382,-6.270448,-4.0092964,-12.187122,-4.2702966,-7.6157985,-5.8458123,-2.9190812,-4.0636573,-4.078755,0.6715243,-9.944219,-4.16857,-3.918689,-6.3053594,-4.6094375,-6.4029336,-5.775484,-7.7063046,-2.0828989,-2.9095392,-2.5472202,-3.8707182,-4.2163124,-6.1239815,-8.7569895,-10.275521,-5.577583
461,0.47251865,-6.681573,-4.5155125,-10.219787,-4.981861,-9.61341,-10.909742,-0.07511581,-5.013573,0.2835021,-6.9166737,-7.677089,-4.0302353,-4.908394,-3.1391482,-11.395176,-4.7622266,-7.4838014,-5.825435,-1.2100807,-3.539822,-3.7203066,0.26126823,-9.699107,-4.9985456,-4.7881083,-5.442857,-5.127703,-6.697958,-6.1621237,-6.4171877,-0.9745185,-2.6924086,-4.8055673,-4.089242,-4.5371695,-7.4593897,-9.0348425,-10.065047,-5.874298
468,1.2712373,-6.205593,-2.8554256,-9.526076,-5.9841404,-8.19603,-9.458407,-2.0694575,-3.102742,1.3134843,-6.2066236,-5.072482,-4.125999,-2.0816293,-2.1023643,-10.135772,-4.121812,-5.0109086,-4.2965817,-0.26919895,-3.1836042,-2.816464,-0.6047522,-8.2061825,-4.2541685,-3.773789,-4.254085,-3.7074778,-4.628812,-4.885926,-4.6990633,0.6142563,-1.8962088,-4.6580763,-3.3007846,-2.9250333,-6.535106,-7.5806923,-8.355146,-4.8410296
475,-0.69943464,-5.2512536,-2.7507439,-9.146192,-4.8534775,-8.48099,-9.700375,-1.9337195,-3.3998299,-0.16658896,-4.775859,-5.219729,-4.4714427,-3.525425,-1.9473445,-9.5742,-3.7954237,-6.2830253,-4.2177973,-1.1340209,-3.5131154,-2.424002,-0.4279963,-10.279311,-3.9599197,-2.6653903,-2.885423,-3.0647352,-5.689063,-5.020996,-5.2806883,-0.09536516,-0.9779567,-4.3516846,-2.1227362,-3.0484607,-4.9874315,-7.7853036,-8.799087,-3.9578464
483,0.46258238,-6.181538,-3.6362915,-10.339383,-5.924383,-9.504666,-10.665821,-1.4549643,-3.4960446,-0.21704325,-5.6390142,-5.7440104,-6.19444,-3.8891065,-2.5966616,-10.990933,-4.667755,-6.8303523,-5.4673963,-0.28317782,-4.047215,-4.2390866,-0.6984332,-10.615185,-5.5016336,-4.481462,-3.9363816,-3.8614383,-6.3903127,-5.426226,-5.604766,-0.30061468,-2.3537636,-5.436699,-4.0135093,-3.9224188,-6.9123583,-8.717289,-9.533751,-5.0766006
490,-2.3712494,-2.7391346,-1.8769876,-8.725049,-4.6394987,-8.864267,-9.267791,-2.1301606,-1.88657,-1.8002443,-3.2012115,-4.2207184,-5.9092016,-3.668889,-0.84658885,-7.8666096,-4.5038776,-5.5261593,-3.89214,-1.1291786,-3.0294023,-1.9283198,-0.076300986,-11.13684,-5.0997043,-1.5896169,-1.428366,-1.6277423,-4.363234,-5.2034473,-4.4268904,-0.360661,-0.31099477,-4.702825,-0.7824919,-3.0372472,-4.6451716,-7.52153,-8.616192,-3.1710784
497,0.18260537,-5.1294994,-2.3086994,-9.45295,-5.3025656,-9.102655,-9.8222885,-2.6062963,-2.5928373,-0.45281252,-3.7683778,-3.8870864,-6.012876,-3.207221,-1.4379873,-9.1798315,-4.5840487,-6.0714025,-4.77282,0.24582973,-3.1476042,-3.1404848,-1.2965443,-9.950389,-4.902973,-3.615526,-2.027516,-2.3000665,-5.5990095,-4.3456936,-4.5954556,0.33664992,-1.1512142,-5.1642847,-2.6116157,-2.513352,-5.941733,-8.212676,-8.7741995,-3.7448416
505,-1.9100132,-4.1794286,-1.973432,-8.754294,-5.2598286,-8.743004,-9.535495,-2.7239535,-2.2601051,-1.8768883,-2.640633,-4.094745,-5.294682,-3.1539671,-0.88181806,-9.148975,-4.270772,-5.8665333,-3.7564156,-1.2998222,-3.0225093,-2.127607,-1.0736232,-10.608943,-3.534068,-1.2187421,-2.9085526,-1.1935849,-4.9003987,-4.669938,-4.5271726,0.11686905,-0.96548533,-4.433294,-2.2732315,-2.973791,-3.2981339,-7.3092475,-8.835274,-3.6719308
512,0.60375786,-5.5193954,-2.0124252,-9.981872,-6.134256,-8.912834,-10.058134,-2.4265094,-2.3563547,-0.65143734,-3.6591074,-4.2681446,-5.6017914,-2.0717864,-1.5675945,-10.722463,-4.9054356,-6.1115932,-4.2803206,1.1686245,-2.7981756,-3.181263,-1.6708212,-10.1197815,-4.5285845,-3.5772283,-4.5865884,-2.2851753,-5.7066116,-4.3951354,-4.83672,0.4175619,-2.3282514,-4.601644,-4.4039526,-3.703688,-4.745065,-7.876576,-9.309779,-5.328382
520,-0.40023002,-2.941449,-0.9859145,-8.268985,-5.043807,-8.12213,-9.2824955,-2.5585039,-1.4008546,-2.1235359,-3.1730816,-3.9036524,-4.790117,-0.9715376,-0.73707813,-9.133906,-5.371588,-5.3691487,-2.6590242,-0.60843176,-2.335462,-2.552338,-1.653617,-10.395313,-4.396056,-1.0758232,-5.378245,-0.54252696,-4.134517,-4.0899196,-4.2142196,0.33700854,-3.1284485,-3.4386308,-3.6317759,-3.8285713,-2.0432386,-7.273183,-8.858102,-4.909497
527,0.14170435,-1.5127267,-0.67345536,-7.18525,-4.1564226,-7.9970007,-9.529651,-1.961002,-1.8975188,-2.2891326,-2.626281,-2.896974,-4.1874485,-0.30583718,-0.78989965,-8.802659,-5.4772277,-6.153581,-1.431357,0.09235945,-2.8262224,-2.3807535,-1.7704548,-10.317445,-5.4281354,-0.95220673,-5.138312,-0.472301,-4.8968463,-4.3529673,-4.5946336,0.40701774,-4.1473293,-3.4710648,-4.040077,-3.6249576,-1.013093,-7.2330365,-8.615371,-5.1285295
535,-0.94779027,0.21485214,-0.26095936,-4.6595693,-3.139849,-7.0453744,-8.283327,-1.2659339,-1.873988,-3.0344744,-1.4618446,-2.010136,-3.274457,-0.13859327,-0.9154966,-6.284068,-5.0614333,-6.7574706,-0.22779387,-0.96750677,-3.1055675,-1.5963293,-0.999279,-10.47677,-6.2748423,0.59520626,-3.9829073,0.075074896,-5.141766,-4.8360825,-4.8617353,-0.23396417,-3.459493,-3.2797654,-2.6641932,-3.2526178,0.904798,-6.3170533,-7.9844365,-4.7206383
543,-1.5506458,1.6828239,0.400034,-3.5664744,-2.0372999,-6.8868876,-7.290155,-1.0047116,-2.5904682,-3.392384,-0.577298,-0.7735679,-3.833303,0.335534,-1.5922686,-3.9141057,-4.8986487,-6.9733534,1.259044,-1.4643133,-4.705909,-1.1183645,-0.9478762,-10.708475,-7.403955,0.77425283,-2.167149,1.1305082,-5.3145657,-4.8367615,-4.3024993,-0.70570004,-2.7870734,-3.2402964,-1.5027162,-2.5003452,2.032675,-5.816182,-7.733712,-3.3321128
551,-1.1200761,2.208094,1.0214275,-1.9796104,-1.363482,-6.3532753,-6.4866705,-1.0796802,-2.5586247,-3.2851284,-0.09187739,0.32573742,-3.625307,0.5895266,-1.9791433,-1.9895827,-4.7460446,-7.533046,1.4736547,-0.21253663,-5.564144,-0.6707933,-1.157426,-10.1939335,-8.340969,0.7758113,-0.84255815,0.8674534,-6.2553864,-4.552,-4.3181868,-0.5984295,-2.4779763,-4.023304,-1.1766043,-1.9161754,2.0685477,-5.458931,-6.8907733,-2.2731013
559,-1.2609183,1.9808543,0.98686063,-2.0230284,-1.6241885,-6.1519575,-6.5227346,-1.1772685,-2.566955,-3.357564,0.10748584,0.43451527,-3.7699728,0.6899613,-1.6761578,-2.527755,-4.2068787,-7.4164166,1.4512647,-0.09265872,-5.4116917,-0.7339097,-1.0242033,-10.249053,-8.227685,0.85268384,-0.8267098,0.8444844,-6.2747364,-4.369923,-4.229312,-0.3399255,-2.3579543,-3.9682686,-0.9882865,-1.4811802,2.2531126,-5.901382,-6.7194896,-2.6290004
567,-1.4656277,1.8130264,0.99880505,-1.7224739,-1.5607991,-6.3342576,-6.8306713,-1.3092488,-2.255577,-3.1959352,0.44961414,0.97752863,-3.9172673,0.50563216,-1.5299518,-1.9501395,-3.7821715,-7.144569,1.4316297,0.5314565,-5.1447377,-0.5738496,-1.3155687,-10.15686,-7.627377,0.7589087,-0.12442689,0.7282545,-5.8267474,-4.0456533,-4.33782,-0.3664964,-1.8162278,-3.7470691,-1.0022584,-1.1237743,2.0685651,-6.088793,-6.2149296,-2.18146
575,-0.38201746,1.6056215,1.3183968,-1.7137989,-1.4688357,-6.94493,-7.2122235,-1.3112125,-2.5853767,-2.858303,0.8382591,1.5281564,-5.2256837,0.8129645,-2.2227452,-0.8862581,-3.7131283,-7.6594224,1.4234236,1.5011915,-5.699025,-0.8726524,-1.6299801,-10.288084,-8.354863,-0.17974041,0.6831077,0.14263707,-6.429125,-3.216612,-4.4130697,-0.6737086,-1.532204,-4.844949,-0.6841678,-0.34163508,1.0106474,-6.6714478,-6.0864396,-0.944804
584,-0.41665122,1.1926724,1.7608423,-1.9214165,-1.5727923,-7.0570664,-7.255137,-1.5086143,-2.7760956,-2.8173015,0.86789036,1.4329414,-6.47446,0.55101395,-2.859704,-0.26650062,-3.1674526,-7.466023,1.0680155,1.4549822,-6.377782,-1.0426239,-2.092403,-10.286997,-8.250802,-0.49875972,0.91698503,-0.03954232,-6.459197,-2.105515,-4.244592,-0.99081457,-0.9890402,-5.467242,-0.65631795,0.06058278,0.53943473,-6.9280777,-5.9355636,-0.47824055
592,-0.5465388,0.593223,1.2503449,-2.49595,-1.8579445,-7.427331,-7.2629066,-1.6519039,-2.4529388,-2.844646,0.5695244,0.49924543,-6.5068464,0.374018,-2.2813404,-1.956521,-2.8802416,-7.1163726,0.6932833,0.90031487,-6.231396,-1.3193179,-1.7941588,-9.639975,-6.868726,-0.5692731,-0.04617138,-0.16753347,-5.6182075,-1.2527248,-4.353276,-1.1371672,-0.84395844,-4.9512377,-0.9962762,0.02991339,-0.0024142081,-6.860922,-5.52946,-0.46780327
601,-0.55722123,0.5078159,1.213399,-1.7558769,-1.4826732,-7.088093,-7.024066,-1.5576015,-2.270058,-2.8308325,0.56129843,0.5052134,-6.6384764,0.08655849,-1.888224,-0.9142074,-2.394999,-7.2260303,0.65303683,0.71130884,-6.385664,-1.3266938,-1.6782154,-9.714267,-6.559967,-0.84581584,0.29961762,-0.7801111,-5.7132235,-0.3382944,-4.111097,-1.2455121,-0.4788126,-4.8887486,-0.8002718,0.62924093,-0.14405468,-6.709325,-5.386549,0.11808206
610,-0.94695663,0.7703504,1.546019,-1.663739,-1.600623,-7.4638143,-6.872893,-1.9849008,-2.5851023,-2.848581,0.83518755,0.33039144,-7.366178,-0.051874924,-2.0855968,-0.23571748,-2.34171,-7.185953,0.46222726,0.4896208,-6.8485184,-1.4673858,-1.8647032,-9.91731,-7.1650853,-0.8600299,0.6811367,-0.41724792,-5.5738945,0.111871295,-3.95553,-1.3489157,0.009667406,-5.302829,-0.40732506,0.67012995,-0.44803518,-6.7224135,-5.2278457,0.67984027
619,-1.2288166,0.1682035,1.242234,-1.6880757,-1.7814662,-7.4345512,-6.5216813,-1.9818091,-2.3598645,-2.953883,0.8822754,0.2001266,-7.9795384,-0.28355122,-2.271235,0.02944202,-2.2282994,-7.1657915,0.41207564,0.17400037,-6.7704735,-1.406277,-1.8794122,-9.984869,-6.8931904,-0.6639832,0.73484045,-0.3881519,-5.551267,0.4390044,-3.7333813,-1.7495513,0.415547,-5.2878027,-0.27000394,1.1928544,-0.94522935,-6.795564,-4.956736,1.0430906
628,-1.72741,-0.37353402,1.1956849,-1.9180297,-2.029405,-7.6259236,-6.555897,-1.844595,-2.8913963,-3.1170542,0.78333026,-0.31424218,-8.27968,-0.44480205,-2.5518374,-0.56271154,-1.8885499,-7.223136,-0.23790058,-0.15299015,-6.950887,-1.7078408,-2.215427,-9.861146,-6.7472005,-1.0496908,0.43149394,-0.9927245,-5.6785846,0.45482916,-4.012427,-1.7070018,0.34936374,-5.5979676,-0.5324057,1.4674289,-1.1016842,-7.042931,-5.4206142,1.193026
637,-1.2906767,-0.82651854,1.3755021,-1.8864801,-2.2972126,-7.583238,-6.5799937,-2.0193238,-2.8247433,-3.036388,0.8892517,0.115629114,-8.854033,-0.63775,-3.0505967,0.024607452,-1.5675422,-7.305349,-0.27157256,0.21985932,-6.9289556,-1.7150629,-2.4866536,-9.790294,-7.2776384,-1.0295084,0.9280466,-1.0197682,-5.905652,0.7863574,-3.9127374,-1.888858,0.61508524,-6.0200815,-0.32211974,1.7871196,-1.652324,-7.0477533,-4.9871626,1.4771174
646,-1.4638381,-1.088379,1.2899593,-2.1960413,-2.6246052,-7.5417705,-6.404845,-2.4630914,-2.7307029,-3.3436296,1.2036116,-0.17525642,-9.26859,-0.97876996,-2.7479935,0.17718533,-1.6268553,-7.168382,-0.65978444,-0.2055898,-7.329291,-1.8666481,-2.6581664,-10.010903,-7.090126,-1.2060015,1.0676196,-1.0884393,-5.526706,1.1468558,-3.728668,-1.8128045,1.2190331,-5.6298294,-0.03124169,1.8132235,-1.7984118,-7.0298123,-4.773416,1.6646245
655,-2.14842,-1.8835475,0.93986213,-2.073488,-2.7367423,-7.628713,-5.6594634,-2.6052537,-2.681318,-3.4564006,1.4261742,-0.63464993,-9.705636,-1.706972,-2.4050114,-0.42742053,-1.3756378,-6.575944,-1.1128855,-0.81154597,-6.8258367,-1.9101361,-2.6782587,-9.660155,-5.5970106,-1.1724479,0.58324456,-0.9474413,-4.9470105,1.6408292,-3.7235446,-1.8422523,1.2986777,-5.3664823,0.21704027,2.2668548,-1.7260388,-6.779021,-4.467471,1.7264744
665,-2.3539546,-2.1687627,0.92449087,-1.656757,-2.255741,-7.3441443,-5.156471,-2.8036249,-2.7773423,-3.459804,1.7471982,-0.4391756,-9.341155,-1.9953163,-2.551008,0.080527864,-1.0646795,-6.5302434,-1.0069659,-0.9181917,-6.751595,-1.6992593,-3.0834093,-9.3904295,-5.193468,-1.0776769,1.2036725,-1.1566393,-4.8541155,1.4517914,-3.7072082,-1.9609069,1.8180338,-5.2758102,0.68762714,2.3347056,-1.7407025,-6.441827,-4.133644,2.0978138
674,-2.551919,-2.5567584,0.75515485,-2.1716027,-2.629292,-7.7112536,-5.162342,-2.9135318,-2.9776373,-3.571934,2.0745971,-0.7673824,-9.736927,-2.5337439,-2.4806821,-0.1816093,-0.9579013,-6.383701,-1.2686118,-0.7510059,-6.7209764,-1.9127645,-2.8541145,-9.319059,-5.011251,-1.336196,0.9195442,-1.6874691,-4.9909353,1.3922157,-3.7671897,-1.8428082,1.8864288,-5.6354294,0.7380631,2.4288335,-1.8512934,-6.4572234,-4.366162,2.0212967
684,-2.2514603,-2.12588,0.89679164,-2.398037,-3.0422292,-7.8346786,-5.002001,-3.09595,-2.696712,-3.706102,1.731371,-0.8798996,-9.842285,-1.8145773,-2.7546475,0.032743573,-1.1334138,-6.681997,-1.0321947,-0.7810532,-6.9717083,-1.9845258,-2.9821763,-9.551194,-6.0790677,-1.2729127,0.50790673,-1.234181,-4.9145904,1.7401596,-3.4824257,-1.6573577,1.4729025,-5.688289,0.2498956,2.774298,-1.8311769,-6.7604017,-4.951404,2.041425
694,-2.131712,-0.21775585,0.93067414,-1.3937709,-1.5832632,-6.916876,-4.07088,-1.8335687,-3.4107502,-3.5885339,0.4212646,-1.4225316,-7.75241,-1.0729398,-3.3296592,-0.023342531,-1.4559312,-7.1394753,0.10511764,-1.2213998,-7.1985598,-1.7986426,-1.8010694,-9.0138,-6.821552,-0.3205948,-0.8295047,-1.2432442,-4.7476563,1.6696441,-3.6189384,-2.1478193,-0.08983117,-5.4464273,-0.6953804,2.664847,-1.1691417,-5.674488,-4.9198823,1.7657986
704,-0.44741336,1.267847,1.5276109,0.3233339,0.083379425,-3.9883695,-2.4077544,-0.68206584,-3.5080347,-2.217941,-0.39084804,-0.22318543,-3.079608,0.9689065,-3.6898768,0.41756234,-1.3400042,-7.1666927,1.274716,-0.24854878,-6.598247,-1.5320288,-0.9814042,-4.961401,-5.8957224,-0.051958647,-0.6263822,-1.0531396,-4.897821,1.4721509,-3.2662842,-1.610498,-1.7730641,-4.4157324,-1.31501,2.4306397,-0.004497917,-4.659208,-3.1295342,1.4498496
714,0.010667315,1.6026375,1.6329435,0.939107,0.46852878,-1.5953989,-0.83676785,-0.46758926,-3.4186668,-1.491831,-0.0044752243,0.8262282,-0.74346465,1.5490775,-2.9324627,0.6997381,-1.1280466,-5.8641243,1.5612793,0.32515702,-5.1396046,-0.6275134,-0.5223501,-2.407534,-4.075534,1.1948515,-0.07226512,-0.028002182,-4.3573356,1.2820709,-2.7990274,-0.81958485,-1.7514579,-1.9919065,-1.1910095,2.1840556,1.0703238,-2.5284412,-1.6113012,1.1893072
724,-0.5488508,2.3997827,1.0293744,1.4336416,1.3135446,0.23502548,1.262435,0.50152117,-3.1599636,-1.4319967,-0.41307095,0.071232,1.564566,1.1573329,-1.5131289,0.064146966,-0.936334,-2.6566036,1.3201648,-0.72618455,-2.4748497,-0.20926973,0.80598694,-0.3533358,-0.38915196,2.0428529,-0.4788456,1.2087331,-3.9757166,0.6727004,-1.9690171,-0.7659629,-1.1718996,1.3827863,-0.7676471,0.7214455,1.4925022,0.42233825,-0.6430973,0.706469
734,2.2728086,1.5495739,1.2881061,1.2701385,1.5053005,0.78151894,0.3730965,0.8365015,-4.386597,0.25614753,-0.15600036,1.3938112,1.5310674,2.0913665,-2.712912,1.1656617,-0.0734592,-1.877836,1.195456,1.6584443,-0.08677694,-0.13575423,0.5951207,1.1340486,-1.1130052,0.26385245,0.8231128,0.36104354,-5.607633,0.48140755,-2.3085527,0.093168125,-1.2085773,2.4050062,-1.2993937,0.6576037,0.59065837,0.08156958,0.51028305,0.7113433
744,2.3755765,1.1459714,1.4149742,0.7862476,0.9523017,1.0084971,-0.053646747,0.19216546,-5.538105,0.7334262,0.2878178,1.4787607,1.4103603,1.7320932,-3.6647909,0.9109886,0.0057049505,-1.2159178,0.5417123,1.9645735,0.85486966,0.15231055,0.34725013,1.0712352,-1.4029869,-0.019971956,1.1122253,0.947677,-6.3750486,0.41256157,-2.0806162,1.2222687,-0.46975952,2.59668,-0.6767396,2.4419362e-05,0.625041,0.3675158,1.0676099,0.0081745945
754,1.0008569,1.569636,0.619911,0.35776705,0.67274797,0.8644533,0.47159845,0.2922639,-6.1445003,0.12712918,-0.0032094605,0.0781657,1.3566643,0.7556149,-4.258323,0.03203463,0.20142885,-0.6815373,-0.12188639,-0.3901564,1.4136252,0.728593,0.94439405,0.4054395,-0.23158933,0.69799364,0.822892,2.0313327,-6.5878253,-0.271112,-2.3285735,0.076383576,0.49191317,3.5313134,0.057375148,-1.3261243,0.7101488,1.0851997,0.57550627,-0.9435668
765,0.8489721,0.58705646,-0.08846176,-0.4604177,0.31610394,0.6372129,0.32480696,0.44580328,-6.3991895,-0.55085564,-1.2415589,-1.3427479,1.2211398,-0.095530845,-4.5272202,-1.4419638,-0.760006,-0.5243782,-1.2300216,-1.4039441,1.2053201,0.17479326,1.343051,-0.23053716,0.035071492,0.3698277,-1.4727958,1.3664783,-7.120843,-0.3421147,-2.5544364,-0.32832363,-0.0697765,3.9339795,-0.59259576,-1.8319426,-0.20898703,1.1306938,-0.26777205,-1.7127872
775,2.5084934,0.9185056,1.5238668,0.35742837,0.23779535,0.882303,-0.9794853,-0.14011559,-6.9075637,1.312392,0.940894,2.0937762,0.34190536,1.6447574,-5.5010185,1.4894742,0.56020296,-2.248328,0.1545982,2.5470278,0.26300594,0.15086187,-0.434568,0.932353,-2.1896095,-0.6316316,2.092617,1.1092887,-7.6590147,1.4123243,-2.589434,1.9986286,0.304533,2.567322,-0.0003145431,0.36222956,-0.060141668,-0.5794493,1.52615,0.34634697
786,1.6098102,0.22363447,0.52011174,-0.446341,-0.13252212,0.3051164,-0.7701211,-0.121426105,-6.536141,0.4067857,-0.11882237,-0.02618037,0.23816064,0.712238,-4.757939,-0.29392207,-0.039529745,-1.190867,-0.7321891,0.41318685,0.98879373,0.23907661,0.07137936,-0.048384074,-1.2633173,-0.015457948,0.43508154,1.2413749,-7.2260475,0.7198002,-2.6789305,0.7036856,0.21545836,2.9020455,-0.22758694,-0.75407654,-0.3728093,-0.29553437,0.30234322,-0.94211674
796,1.3307283,0.27543315,0.94449574,-0.33055422,-0.24753036,0.27279016,-0.76048845,-0.17374118,-6.4822545,0.18283132,0.30927408,0.33653527,0.010627712,0.74746805,-4.8227773,-0.04235218,0.022566713,-1.5925903,-0.66154754,0.5561303,0.1873313,0.027340649,0.110116236,-0.07664131,-1.2614233,-0.28294033,0.6237484,1.3216627,-7.312892,1.2805924,-2.809321,0.77319354,0.5253046,2.7864044,-0.16547962,-0.48656037,-0.15014967,-0.2621586,0.5376436,-0.5474681
807,0.449448,0.51830965,0.52143586,-0.0036812783,-0.2070067,0.448097,-0.2227156,-0.039930623,-6.4381866,0.14156286,0.17733614,-0.14748242,0.26929218,0.29712698,-4.4214463,-0.03238534,0.13022587,-1.1728026,-0.6522795,-0.35085213,0.30615616,0.36282465,0.47843564,-0.2727179,-0.6808118,0.44275486,0.52677435,1.8018665,-7.118093,1.1642272,-2.5788546,0.5553968,0.7036668,3.5599413,0.17433923,-0.9661737,-0.09893179,0.20186445,0.3103929,-0.6405554
817,0.20140041,0.19757716,-0.0650382,-0.7494916,-0.40621677,-0.122460045,-0.36556697,-0.009967934,-5.9762325,0.014772684,-0.11480678,-0.9452508,0.16267394,-0.15878747,-3.5730526,-1.1010387,-0.22661334,-1.033085,-0.9726018,-0.75893486,0.2539338,0.46077624,0.7713731,-0.46379766,-0.111339964,0.54790294,-0.7291573,1.5475513,-6.353439,1.425366,-2.4326448,0.5450423,0.16346845,3.9461045,-0.09540206,-0.7654789,-0.20173508,-0.20356038,-0.18232532,-1.0629288
828,1.4834445,-0.17125075,0.3909702,-0.45005786,-0.076459005,-0.008771564,-0.17488356,0.25303566,-6.064014,0.49622148,-0.017206462,-0.33081564,-0.014135062,0.26186275,-3.9644647,-0.3135359,-0.047740974,-0.933671,-0.60763174,0.18263523,0.0020053505,0.16616035,0.58700824,0.029215757,-0.38261652,-0.46317756,-0.35272616,0.75150335,-6.6467676,1.9329439,-2.490931,0.64770466,0.38301632,3.9983664,-0.18396781,-0.110261984,-0.48077404,-0.44630927,0.18375109,-0.42802304
839,1.8390999,0.2027678,0.40630472,-0.022699714,0.28358468,0.08551441,-0.21780343,0.5092585,-6.829309,0.4888488,0.02911266,0.11555191,0.15465191,0.59021044,-4.5942535,0.17468768,0.15154077,-1.202712,-0.31922364,0.76234394,-0.049414665,0.021433368,0.42376566,0.46982947,-0.80051345,-0.74345666,0.62644637,0.50673467,-7.2670145,2.4862146,-2.5626006,0.7915086,0.29256243,3.4971428,-0.12139926,-0.10708816,-0.65758973,-0.009082315,0.52091056,-0.10820505
849,1.2926303,0.154445,0.33358324,0.21067655,0.17598677,0.19458683,-0.38530183,0.22580439,-6.9064655,0.41431075,0.03548918,-0.027475515,0.14823017,0.52661246,-4.7858267,0.14085653,0.24346833,-1.3978373,-0.40225267,0.50917953,-0.03681999,-0.0065642195,0.33389664,0.07328193,-1.349895,-0.31525302,0.74185497,0.9790417,-7.463893,2.1003158,-2.689457,0.5736536,0.6466972,3.2994905,-0.12406039,0.04000349,-0.5135968,0.057991847,0.5085572,-0.21010119
860,1.0410599,0.1856353,0.5540289,0.22543553,0.31988302,0.52607405,-0.27085996,0.2180738,-6.8563595,0.3841314,0.088524245,0.22647752,0.17016195,0.542114,-4.7896204,0.47029394,0.17682113,-1.6618253,-0.27210832,0.25333592,-0.009673633,0.2547668,0.38275254,0.09006994,-1.135295,-0.300146,0.9063657,0.9157082,-7.2668552,1.9479626,-2.7861655,0.338029,0.8151683,3.3372047,0.09273278,0.13229841,-0.39228222,0.21421918,0.8406077,0.2222918
871,1.0277295,0.45566198,0.515721,0.24927941,0.33045447,0.29892716,-0.052265696,0.324926,-6.516459,0.2761657,0.33503187,0.4579594,-0.10879156,0.52717704,-4.569713,0.7056295,0.5219361,-1.4655305,-0.11370958,0.3230619,-0.00993876,0.3007302,0.34895217,0.050846707,-1.128895,-0.16962068,1.1012923,1.0954955,-7.2944427,2.0148747,-2.5104785,0.5167228,0.95160335,3.2932394,0.2857903,0.23018695,-0.092434414,0.36846575,0.9261261,0.34542704
881,0.42877027,0.53250766,0.55090976,0.41463968,0.30266455,0.4983359,0.20603295,0.14539717,-6.621374,0.14830281,0.27006444,0.34715667,0.27324238,0.22598824,-4.573685,0.6814513,0.53394836,-1.281012,-0.051249698,-0.15958795,-0.38954413,0.52457905,0.41530702,0.08625195,-0.81845766,0.22054398,1.364874,1.4663419,-7.1673727,2.169539,-2.3951828,0.4096675,1.1876342,3.429769,0.6761232,0.13074902,-0.10619716,0.4837201,0.5995511,0.39496827
892,-0.26368132,0.9596062,0.25958723,0.60218287,0.18046252,0.669728,0.4243207,-0.11133653,-6.4245515,0.06564049,0.2945963,0.014321347,0.06933592,-0.09299795,-3.9005404,0.32847813,0.5697558,-1.0855452,-0.16701305,-0.83407795,-0.4346556,0.84288317,0.80251807,-0.24046302,0.10843266,0.98630875,1.0334339,2.0079646,-7.025472,2.116762,-2.3164353,0.21357572,1.4887824,4.005282,0.8346848,0.18831225,0.32525724,0.9039875,0.51613337,0.24590413
903,-0.7262526,0.37355047,-0.06509832,0.08483024,-0.14901488,0.22090383,0.43751758,-0.0151326405,-5.4828606,-0.34706005,0.21831666,-0.6863672,0.07157961,-0.3904652,-2.6346605,-0.5033471,0.17600563,-0.49671373,-0.75052154,-1.1291071,-0.88232875,0.6867461,1.1670188,-0.48237124,1.0128917,1.316971,0.16381475,1.9036674,-5.7525473,2.3770463,-2.1638603,0.1197926,1.2663593,4.4941816,0.8669132,0.07512644,0.40211076,0.4138893,0.06877892,-0.14281875
913,0.04770069,0.16428335,0.57841325,-0.1112047,-0.16827807,-0.18510576,0.12411103,0.31087652,-5.310209,0.38653785,0.4934493,-0.06480493,-0.16625305,-0.017875576,-2.6861193,0.015748428,0.55614656,-1.0483848,-0.27954003,-0.23540851,-1.5126492,0.57463783,0.971276,0.06070761,0.74120414,0.36305168,0.41099998,1.2081414,-5.489803,3.6853197,-1.9609665,0.7996142,0.88668317,4.2804785,0.6212544,0.88978547,0.08897555,-0.31216738,0.32243216,0.51462084
924,-1.6933804,1.1462557,-0.034654878,0.9575163,0.38550168,0.5119089,1.7412788,0.42533812,-4.7903156,-0.3192287,0.523217,-0.6360552,0.5515614,-1.2129343,-1.5401484,0.32273555,0.6780834,0.31062853,-0.13017237,-1.830645,-0.7189093,1.0084379,1.6339177,-0.51381075,2.5425143,1.8527775,0.6594965,2.1897025,-4.4121833,2.4869838,-1.7931097,-0.45973223,2.123645,5.55707,1.4029815,0.4432929,0.7368932,1.2900956,0.47486013,0.54403096
934,-4.208878,1.2351651,-0.5993886,0.39640412,-0.47495124,0.060049836,3.0015097,-0.022332806,-2.479595,-1.7479452,0.065037616,-2.0991256,0.4124093,-2.3474977,0.65152377,-1.2889463,0.66528386,0.5018241,-0.80781645,-4.1972117,-2.1453156,2.1494637,1.9737682,-1.6681691,4.4614697,3.785003,-1.4749863,2.7624547,-2.1435425,1.7957841,-1.6468092,-1.501097,2.388768,6.5216765,1.987135,0.1450479,1.4132297,2.0986986,-0.8556781,-0.23310332
945,-0.3108774,-0.85057753,-0.10076022,-0.3184508,-0.19061682,-1.4233242,0.6842494,0.25297415,-3.1351776,0.29924202,0.5578156,-1.5851984,-0.6093422,-0.8108465,-1.1512971,-0.29827893,0.5846916,-1.2557735,0.56898695,-1.0061466,-3.5430753,0.21034634,0.8655414,0.5353996,2.8542283,0.6075093,-1.7711978,-0.6831319,-3.271504,4.3380375,-1.6248921,-0.21855016,0.38767296,4.6320486,-0.019915177,1.7078363,0.49547178,-1.2303545,-1.5416179,0.99984485
956,1.8075609,-1.4366201,0.18802518,-0.85101324,0.051790506,-1.8009441,-0.42074466,0.9489297,-3.2368135,1.0214977,-0.057316516,-0.5595021,-0.8093132,0.3848917,-1.9556663,0.30308542,0.49612504,-1.4911369,0.9134546,1.3843429,-3.4043565,-0.96569127,0.45417044,1.6349534,1.0858198,-0.9772316,-1.7161806,-2.0583045,-3.499005,5.072389,-1.362275,0.46504802,-0.92068124,3.65668,-1.1944851,2.6999676,-0.6205514,-2.5472388,-1.471216,1.8707334
967,2.060623,-1.1030421,0.32497245,-0.35927993,0.49490485,-1.1673863,-1.3970665,0.72599137,-4.779676,1.3265945,0.29568937,1.0063912,-0.71808976,0.9347076,-3.2509916,0.95887125,0.68525743,-2.364035,1.2945485,2.0751352,-2.8888392,-1.0587395,0.154999,1.8184959,-0.69821835,-1.1333401,0.22647288,-1.4775517,-5.407674,5.0990767,-1.9415447,0.97039574,-1.1097517,3.5949912,-0.84174454,2.8243203,-0.61387855,-2.3176842,-0.53790456,2.3453615
977,1.583485,-0.6561807,0.3397378,-0.027116327,0.3231948,-0.68460256,-1.230991,0.54363257,-6.3540196,0.52865845,0.18912606,1.0139498,-0.58871603,0.80187994,-4.013699,0.8314478,0.7245291,-2.3776686,1.1049769,1.4550445,-2.4716547,-0.49567732,0.23193094,0.7209317,-1.2383057,-0.45150957,0.6315688,-0.38867453,-6.5759664,4.417643,-2.3062258,0.5468689,-0.3396143,3.280232,-0.13785623,2.2879274,-0.114694916,-1.2625179,-0.089745946,2.1058016
979,0.068473145,-0.5000471,-0.5429187,-0.3909322,0.0947061,-0.94450366,-0.43827617,0.3485543,-4.1450696,-0.27866346,-0.53967094,-0.9007365,-0.031446867,-0.69029045,-1.7989572,-0.6888516,0.17534888,-0.6822908,0.36177015,-1.2187446,-1.4462059,-0.15111114,1.1102042,0.028023945,0.86618537,0.6059211,-0.7145922,0.60313797,-4.3681927,3.45326,-1.7317249,-0.25629854,-0.045802094,4.0768976,0.043446723,1.2835089,0.3243943,-0.58039486,-0.91591644,0.3871205
989,0.55667484,-0.9852251,-0.85065264,-0.77038676,-0.18499817,-1.1557307,-0.9077049,0.19113961,-4.6152234,-0.39812893,-0.88042593,-0.9493141,-0.23200041,-0.7382646,-2.4242926,-1.0898263,-0.23488814,-0.8651155,0.34207287,-0.75234705,-0.9884846,-0.68443835,0.4232667,-0.009560951,-0.3185707,0.040305283,-1.0353541,0.3223869,-4.9715257,2.9733534,-1.9127865,0.06619478,-0.3331489,3.066431,-0.24517347,1.19461,-0.25624055,-0.42177117,-1.1826657,0.5788843
999,0.6655374,-0.7889924,-0.5868329,-0.010211977,0.001188301,-0.9395626,-0.74186194,0.18346812,-4.814615,-0.26198253,-0.26086706,-0.6608292,-0.58253103,-0.47680357,-2.469658,-0.41114363,0.23010182,-0.56119996,0.6772071,-0.9927979,-0.61400706,-0.3927705,0.516698,-0.2264687,-0.42961186,0.13986337,-0.27883086,0.6298783,-5.2759385,2.7048602,-1.6848756,-0.03410734,0.14513624,3.1142075,0.10604343,1.1340702,0.21975617,-0.1332181,-0.8280243,0.6069446
bias,-0.5906026,-0.15750626,-0.6325383,-1.5594282,-0.7533032,-2.1173346,-1.7720556,0.21095386,-0.25425804,-0.30253473,-0.4365066,-0.661131,-1.5234207,-0.7916368,-0.6079672,-0.7520277,-1.4259927,-1.4135073,-0.7255785,-0.38559932,-0.9014827,-0.7208047,0.31176788,-1.1398758,-0.5716437,-0.4083144,-0.38797963,-1.2675298,-0.34204054,-0.7476621,-2.0275486,-0.28770578,-0.2100894,-1.0877118,-0.5439744,-0.11956953,-0.92454433,-2.3400388,-1.4641834,-0.46369487
